svm_type c_svc
kernel_type polynomial
degree 3
gamma 1
coef0 0
nr_class 13
total_sv 148
rho -2.49303 -0.895059 -1.82631 -1.22605 -0.868248 -0.712187 -0.535333 -1.50546 -1.29252 -1.39671 -0.374145 -1.81331 -0.204287 0.580484 -0.249924 -1.00814 -0.624697 -0.302714 0.37451 -1.61885 5.38363 -0.0514963 -2.01466 5.44532 10.6826 -0.151989 -0.298353 -0.148276 5.8953 -0.779904 -0.643621 0.259397 -0.346065 21.7093 -0.692769 -0.820851 -0.267071 -1.73557 -1.15523 -1.44578 0.108696 -0.545553 0.24782 -0.125094 -0.138447 -8.50048 -0.954987 -0.902937 0.219948 -0.46438 -0.362227 -0.0629495 0.950085 -0.966675 -0.464206 1.03176 1.35841 0.473748 1.04861 -0.714319 -0.189432 0.676502 0.802423 0.404182 -0.555665 -0.204716 1.31757 0.693905 -1.06459 -1.19949 -0.00978798 -0.785582 5.46442 0.795664 0.30201 0.681255 -0.290045 -11.3262
label 1 3 4 5 6 7 8 9 10 11 12 13 14
nr_sv 9 17 13 15 10 7 2 4 16 8 13 16 18
SV
0 0 0 0 0 7.857831715203849e-009 2.048185094004042e-008 0 0 0 0 0 1:0.26324 2:0.93265 3:0 4:0.55 5:0 6:-3.0686 7:-7.4381 8:5.3383 9:10.675 
0 1.48872261940349e-007 0 0 0 0 0 1.114587335197113e-006 0 0 0 0 1:1.3273 2:0.70518 3:0 4:0.85 5:0 6:3.6598 7:-7.1758 8:1.7237 9:10.951 
0 0 0 0 0 0 1.30128128784539e-008 0 0 0 0 0 1:0.88099 2:0.24186 3:0 4:0 5:0 6:5.5399 7:-4.7593 8:1.9676 9:10.6 
0 1.70271475909684e-007 8.404738571362068e-007 5.106773634530273e-007 0 0 0 0 0 0 0 0 1:0.31564 2:0.16243 3:0 4:0 5:0 6:7.239 7:-5.1129 8:1.8439 9:10.438 
1.520151904296573e-006 3.696189763058079e-008 1.727021560432174e-008 1.373971436391873e-007 9.768190366022939e-008 8.388799841991033e-008 1.514295503056906e-008 3.093071779572685e-007 7.164928994377119e-008 1.9164017715074e-007 3.390713266270494e-009 3.484213697195756e-007 1:0.39216 2:0.26454 3:0 4:0 5:0 6:7.734 7:-4.8051 8:0.0096321 9:10.415 
1.132326337571482e-007 0 0 0 0 0 0 0 3.583222948823455e-009 4.860543133289388e-009 0 0 1:0.93106 2:2.3739 3:0 4:2.15 5:0 6:0.55451 7:-6.3509 8:7.4027 9:13.441 
2.06132708076654e-007 0 0 0 0 0 0 0 0 0 0 0 1:0.95532 2:0.63262 3:0 4:1.3 5:0 6:4.5859 7:-5.9299 8:5.3375 9:10.738 
0 0 0 0 1.514088286486999e-007 1.691048921362692e-008 7.757153681796342e-008 0 0 0 3.512351373962766e-007 2.097849784264107e-007 1:0.56355 2:0.26096 3:0 4:0 5:0 6:4.4203 7:-2.0301 8:6.7166 9:10.817 
0 2.775231413977714e-007 1.696540075721246e-007 1.00114768105126e-007 0 0 0 1.892395926969464e-007 0 0 0 0 1:0.52464 2:0.82069 3:2.1 4:0.8 5:0.12353 6:1.6972 7:-6.435 8:7.3536 9:11.409 
-0 0 0 1.090645600163293e-008 0 0 0 0 0 0 0 0 1:1.4866 2:1.6043 3:6.8 4:3.5 5:0.095775 6:8.96 7:-5.8701 8:-1.4627 9:13.065 
-0 0 0 0 0 0 0 0 0 0 0 1.36921770282194e-008 1:5.1915 2:7.8059 3:0 4:4.7 5:0 6:7.972 7:-7.1621 8:-1.9283 9:16.798 
-0 0 0 0 0 0 0 0 9.958823012326933e-009 0 0 1.486847231209309e-009 1:11.738 2:8.3311 3:2.6 4:5.7 5:0.022609 6:7.7773 7:-8.2786 8:-2.2815 9:22.386 
-7.826937280023733e-007 0 0 1.208589595130501e-007 0 0 0 0 0 5.07568575787272e-006 0 0 1:0.56649 2:0.37062 3:0 4:4.15 5:0 6:6.0878 7:-6.7467 8:2.4207 9:10.729 
-0 0 0 0 0 0 0 0 0 5.131766748269168e-006 0 0 1:0.68648 2:0.59097 3:4.5 4:4.85 5:0.045918 6:8.758 7:-3.525 8:-0.39139 9:11.814 
-0 6.556852509371052e-008 0 4.434535387786272e-008 0 0 0 4.423854892881986e-009 0 0 0 0 1:2.4594 2:1.0813 3:4.5 4:3.1 5:0.071429 6:5.6883 7:-6.6315 8:0.16687 9:13.071 
-0 0 2.133184307008814e-007 0 0 0 0 0 0 0 0 0 1:0.74704 2:0.71885 3:7.7 4:4.65 5:0.081915 6:7.506 7:-4.4939 8:-2.4494 9:11.989 
-0 0 0 0 0 0 0 0 0 1.181498089229997e-006 0 0 1:0.81349 2:0.66119 3:5 4:4.75 5:0.052083 6:5.4155 7:-5.879 8:-3.6496 9:11.324 
-0 0 0 0 0 0 0 6.169600020685597e-008 0 0 0 0 1:1.1147 2:1.7974 3:8.25 4:4.05 5:0.10061 6:5.8026 7:-7.0869 8:-5.3617 9:13.726 
-0 0 0 0 0 0 0 0 0 9.067371650350762e-007 0 0 1:3.752 2:6.4582 3:2.8 4:3.85 5:0.035897 6:8.0284 7:-6.5863 8:-2.285 9:14.139 
-0 0 0 0 0 5.328360646589565e-008 0 0 0 1.208493533609906e-006 0 0 1:0.72577 2:1.4378 3:3.3 4:5.2 5:0.031429 6:9.2525 7:-1.0798 8:-3.976 9:11.319 
-0 0 0 0 0 0 0 0 2.535892625549646e-007 1.254451935744397e-005 0 0 1:2.6236 2:3.2921 3:2.2 4:5.25 5:0.020755 6:9.551 7:-3.0417 8:-3.0166 9:12.883 
-0 0 0 0 0 0 0 0 0 3.047951577086777e-006 0 0 1:0.53732 2:0.31808 3:2.2 4:3.55 5:0.030556 6:8.2965 7:-3.8852 8:-2.4447 9:10.838 
-7.917125096170329e-007 1.748152834290316e-007 9.476896653555792e-007 2.802814559858017e-007 4.996546824656898e-007 1.06349414805794e-007 8.98099035347015e-008 1.916150674389655e-007 5.791223287598362e-008 0 2.87766078684362e-007 1.388159767911257e-006 1:0.37412 2:0.34141 3:2 4:1.65 5:0.058824 6:8.8709 7:-0.806 8:1.2316 9:10.996 
-2.337363135684929e-007 0 0 1.057616497302008e-008 0 0 0 1.632014973332116e-007 0 0 0 0 1:0.97792 2:2.583 3:0 4:0.6 5:0 6:7.6854 7:-6.5053 8:-3.1974 9:13.793 
-0 0 0 0 0 0 0 0 0 3.771566798949837e-006 0 0 1:1.0668 2:1.9973 3:10 4:6.3 5:0.07874 6:7.7955 7:-6.8595 8:-0.90262 9:12.903 
-3.137469494247672e-008 2.021924557541873e-007 1.174041093862043e-007 1.12150837653257e-007 0 0 1.998079118002974e-008 5.692678757440202e-007 0 0 0 0 1:0.13657 2:0.28569 3:2.8 4:4.65 5:0.029787 6:2.4036 7:-10.087 8:1.5207 9:10.775 
-0 -0 0 0 0 0 0 0.003708035530441833 0 0 0 0 1:0.054635 2:0.26419 3:7.4 4:0 5:7.4 6:2.1179 7:-10.406 8:1.6624 9:10.872 
-0 -0 0 0 0 0 0 0.01081064979411032 0 0 0 0 1:0.05315 2:0.29252 3:5.6 4:0 5:5.6 6:1.9254 7:-10.848 8:1.824 9:11.309 
-0 -7.375460677234268e-008 3.873622340007614e-005 0 3.133292183837363e-008 4.152355904250344e-008 0 0 3.662180551111625e-008 1.496295073887706e-007 0 4.358048702341761e-008 1:0.33332 2:0.27179 3:4.1 4:0 5:4.1 6:5.8322 7:-7.6615 8:0.46225 9:10.623 
-0 -0 0 0 0 0 0 0.01823999668289654 0 0 0 0 1:0.040629 2:0.17706 3:5.2 4:0 5:5.2 6:4.1016 7:-10.041 8:1.3154 9:11.001 
-0 -1.075398925560757e-007 0 0 0 0 0 0.02056079105013239 0 0 0 0 1:0.37597 2:0.17725 3:4.1 4:0 5:4.1 6:4.6854 7:-8.1064 8:-0.18434 9:10.952 
-0 -0 0 2.051946529991614e-005 0 0 0 0 0 0 0 0 1:0.025397 2:0.30216 3:6.2 4:0 5:6.2 6:2.5944 7:-9.7083 8:0.36964 9:10.115 
-0 -0 0 0 0 0 0 0.03612793215774551 0 0 0 0 1:0.025679 2:0.27073 3:5.8 4:0 5:5.8 6:2.6858 7:-9.7912 8:0.3331 9:10.215 
-6.336287768783851e-007 -2.61281764948511e-007 0 2.020586005395596e-005 1.61949358784077e-007 4.074657847480521e-008 9.535249562930349e-008 0 1.759798915576841e-008 1.358845736724369e-008 1.374973392977555e-007 1.534010646487485e-007 1:0.25727 2:0.15338 3:3.8 4:0 5:3.8 6:4.0901 7:-6.9876 8:3.7349 9:10.458 
-0 -0 0 1.799949103943158e-005 0 0 0 0.001920077085362146 0 0 0 0 1:0.024209 2:0.20787 3:7.1 4:0 5:7.1 6:4.6876 7:-9.247 8:1.5243 9:10.523 
-0 -0 0 1.962945391596431e-005 0 0 0 0 0 0 0 0 1:0.027137 2:0.29326 3:5.7 4:0 5:5.7 6:4.8582 7:-9.2408 8:1.4616 9:10.601 
-0 -0 0 0 0 0 0 0.02205161441974062 0 0 0 0 1:0.27273 2:0.24001 3:6 4:0 5:6 6:4.2956 7:-11.299 8:0.33348 9:12.402 
-0 -0 0 0 0 0 0 0.01141937667015463 0 0 0 0 1:0.12564 2:0.37886 3:5.3 4:0 5:5.3 6:3.2237 7:-10.243 8:0.56324 9:11.047 
-0 -0 5.103123352187838e-005 0 2.177442437613389e-008 0 0 0.0005262860063988327 0 0 0 0 1:0.25527 2:0.4252 3:6 4:0 5:6 6:6.5054 7:-7.5018 8:3.6506 9:10.872 
-0 -0 -1.599383397333794e-005 0 0 0 0 0 0 0 0 0 1:0.26257 2:0.43379 3:6.6 4:0 5:6.6 6:6.6945 7:-7.2648 8:3.4966 9:10.769 
-0 -0 -2.483853389899437e-005 0 0 0 0 0 0 0 0 0 1:0.5268 2:0.38526 3:5.2 4:0 5:5.2 6:5.9645 7:-8 8:-0.1282 9:10.441 
-0 -0 -0 0 0 0 0 7.661697986061323e-006 0 0 0 0 1:0.48687 2:0.48163 3:3.7 4:0 5:3.7 6:6.5718 7:-6.3981 8:-0.13949 9:10.107 
-0 -0 -0 7.442584469671772e-005 0 0 0 0 0 0 0 0 1:0.43702 2:0.54758 3:6.3 4:0 5:6.3 6:7.2507 7:-6.6604 8:-0.20601 9:10.122 
-0 -0 -0 0.0001257042790014126 0 0 0 0 0 0 0 0 1:0.38877 2:0.47075 3:5.7 4:0 5:5.7 6:7.3073 7:-6.6182 8:-0.30748 9:10.124 
-0 -0 -5.119225609154669e-006 0 4.854393537246314e-008 0 2.882934204590662e-008 8.678909359815229e-006 0 0 0 0 1:0.7974 2:0.31511 3:5.1 4:0 5:5.1 6:5.365 7:-5.9448 8:2.5611 9:10.411 
-0 -0 -0 6.946856881301815e-005 0 0 0 0 0 0 0 0 1:0.21982 2:0.16853 3:5.4 4:0 5:5.4 6:8.2472 7:-3.0191 8:-1.9669 9:10.28 
-7.286924552166779e-007 -2.924737401891028e-007 -5.032276457586493e-006 1.366443531986413e-005 0 0 0 0 7.604871594511736e-009 0 2.877312748363839e-008 1.286861216478687e-007 1:0.14832 2:0.17702 3:2.4 4:0 5:2.4 6:6.7741 7:-7.3382 8:3.3219 9:10.694 
-0 -0 -1.922741746753645e-005 3.745840093776557e-006 0 0 0 0 0 0 0 0 1:0.13267 2:0.15149 3:4.4 4:0 5:4.4 6:6.8479 7:-7.2544 8:3.2354 9:10.64 
-0 -0 -1.95561695153446e-005 0 0 0 0 0 0 0 0 0 1:0.43373 2:0.97198 3:5.7 4:0 5:5.7 6:6.5806 7:-7.4969 8:3.3828 9:10.951 
-0 -0 -0 0 4.465167006857688e-008 0 0 0 0 0 0 0 1:0.3864 2:0.96597 3:9.5 4:0 5:9.5 6:6.7932 7:-7.6217 8:3.0335 9:11.064 
-0 -0 -0 0 0 0 0 1.14706861447258e-006 0 0 0 0 1:0.91295 2:0.93593 3:6.2 4:0 5:6.2 6:5.718 7:-8.3339 8:-0.47956 9:10.88 
-0 -0 -0 0 1.515984467762309e-007 1.608396516241281e-007 1.335882870360743e-009 1.426357798597794e-006 0 0 0 0 1:0.23383 2:0.1927 3:5 4:0 5:5 6:8.0117 7:-1.8384 8:-2.0848 9:10.421 
-0 -1.917456624789484e-008 -0 0 0 0 0 0 0 2.168475863134401e-007 0 0 1:0.73268 2:1.0467 3:6.6 4:1.15 5:0.275 6:6.853 7:-6.9197 8:0.84666 9:10.272 
-2.987056250959756e-007 -9.667638990056669e-007 -0 0 3.792596317212388e-007 5.169528948063145e-008 8.438921528848652e-008 4.106383682037252e-007 6.378731324312304e-008 1.161387423582005e-007 1.676753755189827e-007 2.543677147152837e-007 1:0.30356 2:0.34434 3:5.9 4:0.25 5:0.98333 6:8.2255 7:-1.1543 8:-0.1659 9:10.296 
-0 -0 -1.68262864488743e-006 -0 0 0 9.345719047654756e-009 1.434041276072274e-005 0 0 0 0 1:0.026355 2:0.40111 3:3.6 4:0 5:3.6 6:2.836 7:-9.6754 8:2.188 9:10.383 
-0 -0 -3.61681415518176e-005 -3.112889719453096e-006 0 0 0 0 0 0 0 0 1:0.020159 2:0.40345 3:6.1 4:0 5:6.1 6:2.8143 7:-9.7888 8:2.1903 9:10.483 
-0 -0 -0 -0 0 0 0 2.978052924089037e-005 0 0 0 0 1:0.025928 2:0.42276 3:5.7 4:0 5:5.7 6:2.7642 7:-9.794 8:2.1869 9:10.472 
-0 -0 -0 -0.0001820849634097161 0 0 0 6.219255961372952e-008 0 0 0 0 1:0.23711 2:0.28184 3:5.2 4:0 5:5.2 6:7.8141 7:-6.0994 8:-0.00048781 9:10.072 
-7.481892751973405e-007 -5.791192280046246e-007 -1.559236073739104e-006 -0 1.836553308219153e-007 3.655663383836702e-008 6.651235620338785e-008 0 5.590347451797366e-008 1.4296378421813e-007 1.45445581478826e-007 2.573657195471438e-007 1:0.17324 2:0.28492 3:3.2 4:0 5:3.2 6:7.2063 7:-6.3276 8:2.016 9:9.9206 
-0 -0 -0 -0 3.341724696694859e-008 0 0 0 0 0 0 0 1:0.20546 2:0.28877 3:7.5 4:0 5:7.5 6:8.5217 7:-4.8817 8:1.8882 9:10.048 
-0 -0 -3.767518513075804e-005 -0 0 0 0 5.603454941091332e-006 0 0 0 0 1:0.092634 2:0.24443 3:5.7 4:0 5:5.7 6:5.2503 7:-8.2265 8:1.2717 9:9.9146 
-0 -0 -1.269078908065806e-006 -4.603701022384143e-005 0 0 0 2.638895594304807e-006 0 0 0 0 1:0.42483 2:0.56692 3:6.6 4:0 5:6.6 6:7.7596 7:-5.3161 8:-2.3227 9:9.9287 
-0 -0 -0 -2.838878403279936e-005 1.852447440362435e-007 9.353162875672547e-008 1.891388145182363e-008 0 5.503260457138685e-009 4.287352653787908e-008 0 0 1:0.41576 2:0.37684 3:7 4:0 5:7 6:8.2578 7:-2.7703 8:-2.2353 9:10.215 
-0 -0 -0 -2.73853205389789e-005 0 0 0 0 0 0 0 0 1:0.13159 2:0.63313 3:5.7 4:0 5:5.7 6:4.7038 7:-8.5825 8:1.6171 9:9.9986 
-1.146855221914585e-007 -3.252223720488614e-007 -0 -0 -0 0 0 0 5.662015443428894e-008 7.829201104683612e-008 3.199504637697395e-007 3.950114564990207e-007 1:0.45881 2:0.49133 3:3.8 4:1.25 5:0.14615 6:9.5161 7:3.59 8:3.7695 9:10.992 
-0 -0 -0 -1.179754640465308e-007 -0 0 0 0 0 0 0 0 1:0.4357 2:0.46593 3:4.95 4:0.35 5:0.61875 6:9.9636 7:3.3217 8:2.9209 9:11.063 
-0 -0 -0 -0 -0 0 4.789515252371041e-008 0 0 0 1.133184571815328e-007 0 1:0.22588 2:0.20726 3:3.8 4:0 5:3.8 6:8.5474 7:4.2593 8:4.7883 9:10.971 
-0 -0 -0 -0 -0 3.236884512045421e-007 7.066409781457067e-008 0 1.794443700327607e-008 0 2.676775520319238e-008 1.027991742045449e-006 1:0.59028 2:0.54752 3:3.5 4:0 5:3.5 6:9.2666 7:4.1535 8:0.93677 9:10.857 
-0 -0 -0 -0 -0 7.844944500019117e-008 0 0 0 0 0 0 1:0.72962 2:0.82226 3:6.35 4:0 5:6.35 6:9.4108 7:4.9555 8:1.1243 9:10.921 
-0 -0 -0 -0 -0 0 5.521536540889691e-008 0 0 0 0 0 1:0.34154 2:0.89818 3:6.2 4:0 5:6.2 6:5.7666 7:2.2265 8:8.6702 9:10.926 
-1.344052101174708e-007 -1.744323104168285e-007 -2.150567049985845e-007 -5.06078219891979e-007 -4.023173218251073e-007 0 0 3.973251083207097e-007 0 7.834318296187866e-008 0 0 1:0.27764 2:0.46008 3:6 4:0 5:6 6:6.6302 7:0.2802 8:2.4498 9:10.68 
-1.086563193487411e-007 -1.596330212716896e-007 -8.227013751730865e-008 -2.125349411047596e-007 -1.300882625950925e-007 -3.26901790105334e-007 0 1.846530048896632e-007 5.727077735559754e-008 1.354824318315507e-007 1.660910503799611e-007 2.649771629197319e-007 1:0.11378 2:0.16246 3:4.2 4:0 5:4.2 6:8.4494 7:5.2733 8:-3.896 9:10.763 
-0 -0 -0 -0 -0 -7.523610609939933e-008 1.46954804814151e-007 0 0 0 1.45355333056567e-009 1.374522629692139e-007 1:0.11657 2:0.17957 3:5.7 4:0 5:5.7 6:6.9468 7:7.4245 8:-2.4796 9:10.578 
-0 -0 -0 -0 -0 -0 -0 0 0 0 1.251286586163636e-007 0 1:0.086759 2:0.20657 3:3.95 4:0 5:3.95 6:-3.4215 7:9.4112 8:3.6042 9:10.81 
-0 -0 -0 -0 -0 -0 -1.05823570418065e-007 0 0 0 0 0 1:1.2686 2:0.16694 3:6.3 4:0 5:6.3 6:0.013792 7:7.7828 8:1.8884 9:10.726 
-0 -0 -0 -0 -0 -1.53108509358971e-007 -4.113123439608598e-008 0 3.192844455163372e-009 0 1.699133948899824e-007 3.36168199477291e-007 1:0.19256 2:0.4344 3:4.55 4:0 5:4.55 6:2.125 7:9.0406 8:4.6256 9:10.758 
-1.262091556670268e-007 -1.097906947147312e-007 -9.535249562930349e-008 -1.145544402047539e-007 -9.477195670286623e-008 -2.066610638820702e-008 -0 1.245031813637548e-007 3.860132104583817e-008 7.916886157120789e-008 6.862387397585975e-008 2.937154070823504e-008 1:1.1824 2:0.3604 3:5.25 4:0 5:5.25 6:-0.64658 7:7.2682 8:2.9429 9:10.92 
-0 -0 -0.04393265678591814 -0 -0 -0 -0 -0 0 0 0 0 1:0.030714 2:0.17114 3:5.4 4:0 5:5.4 6:3.3616 7:-10.428 8:0.96657 9:11.059 
-0 -0 -0.03342926005261308 -0 -0 -0 -0 -0 0 0 0 0 1:0.35218 2:0.26438 3:4.6 4:0 5:4.6 6:4.5759 7:-8.8521 8:-0.38897 9:10.917 
-0 -0 -0.01909014846210256 -0 -0 -0 -0 -0 0 0 0 0 1:0.048373 2:0.21434 3:6 4:0 5:6 6:3.1985 7:-10.42 8:1.2492 9:11.057 
-0 -0 -0.000902314495523301 -1.748945198812745e-005 -0 -1.473277285708578e-007 -0 -0 2.166003578344218e-008 1.985867680845136e-010 0 0 1:0.71238 2:0.32696 3:4.1 4:0 5:4.1 6:5.925 7:-5.1454 8:0.70531 9:10.88 
-0 -0 -0 -0 -1.916860652834501e-006 -4.169070119855061e-008 -0 -3.616802821419148e-009 0 0 0 0 1:0.85616 2:0.3243 3:8.2 4:0 5:8.2 6:1.344 7:-6.6922 8:2.2163 9:10.996 
-0 -0 -0.005626952854277067 -0 -0 -0 -0 -0 0 0 0 0 1:0.050495 2:0.30381 3:6.1 4:0 5:6.1 6:1.7378 7:-11.085 8:0.23882 9:11.312 
-0 -0 -0.0007961062083770834 -0 -0 -0 -0 -0 0 0 0 0 1:0.079506 2:0.48777 3:5.2 4:0 5:5.2 6:1.7599 7:-11.438 8:0.18299 9:11.721 
-0 -0 -0.0003114733232483044 -0 -0 -0 -0 -0 0 0 0 0 1:0.20556 2:0.37685 3:6.3 4:0 5:6.3 6:2.0104 7:-8.8955 8:1.1221 9:11.437 
-0 -0 -0.001188019765196116 -0 -0 -0 -0 -0 0 0 0 0 1:0.23138 2:0.48635 3:3.7 4:0 5:3.7 6:2.1739 7:-7.8972 8:0.97153 9:11.359 
-0 -0 -0.005028015013893182 -0 -0 -0 -0 -0 0 0 0 0 1:0.088087 2:0.35332 3:7.1 4:0 5:7.1 6:1.6752 7:-11.102 8:-0.12582 9:11.361 
-6.561052599287373e-008 -2.432374358737917e-007 -0 -0 -1.516410771001201e-006 -2.083066785513012e-007 -1.846530048896632e-007 -1.058216373879899e-007 3.935314210794921e-008 1.861948997796677e-007 1.311592790051462e-007 1.282533268137575e-007 1:0.37289 2:0.27447 3:4.3 4:0 5:4.3 6:5.6208 7:-2.3001 8:-2.9503 9:10.573 
-0 -2.691640511020073e-007 -0 -0 -0 -0 -0 -0 0 3.850871290402557e-008 0 0 1:0.23932 2:0.48294 3:4.5 4:1.8 5:0.12162 6:2.7946 7:-12.423 8:-1.3641 9:13.024 
-0 -0 -0 -0 -4.446113910669005e-005 -0 -0 -0 0 0 0 0 1:0.078728 2:0.17272 3:5.3 4:0 5:5.3 6:3.2195 7:-9.7612 8:1.739 9:10.544 
-0 -0 -0.01321433652579914 -0 -0 -0 -0 -0 0 0 0 0 1:0.21021 2:0.38348 3:6.7 4:0 5:6.7 6:3.8157 7:-10.449 8:1.201 9:11.36 
-0 -0 -0 -1.835220139023208e-006 -0 -0 -0 -0 0 0 0 0 1:0.12162 2:0.30311 3:7.1 4:0 5:7.1 6:3.5039 7:-10.142 8:1.3435 9:10.927 
-1.547523579858454e-006 -4.778028086401364e-007 -0.001845475910035042 -0 -4.531074566097246e-006 -0 -0 -1.506474115434575e-008 2.841030204512875e-009 0 5.954012204400164e-008 1.582809953518143e-007 1:0.37724 2:0.389 3:2.1 4:0 5:2.1 6:4.2654 7:-7.6319 8:1.7523 9:10.837 
-2.110526854289546e-008 -1.515803732084127e-007 -7.018978355152724e-009 -2.220202097291621e-008 -1.31644112791848e-008 -2.403426486254002e-008 -3.285329853528091e-008 -0 -1.452323194803061e-008 0 3.432188130174902e-008 2.654312759887392e-007 1:4.448 2:3.2654 3:0 4:3.9 5:0 6:11.372 7:-0.17384 8:-2.2152 9:13.744 
-0 -0 -0 -0 -0 -0 -0 -0 -0 7.91607915854317e-007 0 0 1:3.7309 2:2.7975 3:0 4:8.3 5:0 6:11.012 7:0.15349 8:-2.201 9:13.105 
-0 -0 -0 -0 -0 -0 -0 -0 -0 6.886468932018839e-007 0 0 1:3.4926 2:2.7572 3:2.55 4:8.5 5:0.014912 6:11.042 7:0.86021 8:-2.5324 9:13.053 
-0 -0 -0 -0 -0 -0 -0 -0 -0 1.900838708703929e-007 0 0 1:4.8064 2:3.4437 3:0 4:8.65 5:0 6:10.176 7:0.2781 8:-4.3983 9:14.197 
-0 -0 -0 -0 -0 -0 -0 -0 -0 4.063167403806259e-007 0 0 1:12.807 2:8.5537 3:0 4:7.75 5:0 6:11.924 7:-0.35496 8:-1.5083 9:18.428 
-0 -0 -0 -0 -0 -0 -0 -0 -0 6.207561681583122e-006 0 0 1:8.103 2:7.1853 3:0 4:6.9 5:0 6:9.4573 7:-3.1325 8:3.2307 9:14.177 
-7.677377485943776e-009 -0 -8.285267007316656e-009 -1.69526219259793e-009 -1.021485917386499e-008 -3.563713229855542e-009 -0 -0 -0 0 0 2.840182409371034e-008 1:5.4371 2:5.0964 3:0 4:6.7 5:0 6:9.2965 7:-2.8413 8:4.6619 9:12.831 
-4.644986686375539e-008 -1.698799452348625e-007 -3.891554930441528e-008 -4.749490167212065e-008 -3.802746452206256e-008 -4.696661334516945e-008 -2.441747882031663e-008 -4.179416550100154e-008 -4.933097614787365e-008 1.038001345458807e-005 4.581039312722965e-008 4.479764614189251e-011 1:3.7461 2:3.194 3:0 4:7.5 5:0 6:8.9868 7:-0.56614 8:-0.042206 9:13.454 
-0 -0 -0 -0 -0 -0 -0 -0 -0 -3.149212180242188e-006 0 0 1:10.981 2:8.8209 3:0 4:7.95 5:0 6:9.8812 7:-4.0449 8:2.4643 9:17.299 
-0 -1.25464808294466e-008 -0 -0 -0 -0 -0 -0 -0 -0 0 0 1:11.308 2:9.5855 3:0 4:7.9 5:0 6:8.7738 7:-3.0873 8:-1.0291 9:18.41 
-0 -0 -0 -0 -0 -0 -0 -0 -0 -5.113316395390553e-007 0 0 1:10.028 2:6.9249 3:0 4:8.05 5:0 6:10.423 7:-1.8063 8:-0.66718 9:16.413 
-5.87820844124103e-009 -1.167801410473143e-006 -0 -0 -0 -1.4487212855993e-008 -3.241879701248536e-008 -1.855070569684707e-008 -0 -3.152150909123669e-006 9.208192373651208e-008 3.237640575802107e-008 1:3.5534 2:3.9531 3:0 4:7.8 5:0 6:7.2401 7:4.5294 8:-1.9671 9:13.025 
-1.74325347018637e-008 -0 -1.825727048901859e-008 -6.499293206741816e-008 -3.301775159426493e-008 -3.470877946593552e-009 -6.432351099940217e-008 -1.499193091759912e-008 -6.430496603930199e-008 -0 2.567594570223957e-008 1.572219095424041e-009 1:0.70186 2:1.4701 3:8.75 4:3.8 5:0.11364 6:6.7284 7:0.67447 8:-7.3523 9:10.918 
-2.010402377979302e-008 -2.29645686335886e-006 -5.590520873818169e-008 -1.216919013446521e-007 -4.980781220509833e-008 -3.125751294905776e-008 -0 -2.211866575713784e-008 -4.824821560949952e-008 -0 2.246121827720307e-008 0 1:1.8148 2:1.4201 3:8.7 4:6.2 5:0.0696 6:4.2096 7:-5.2584 8:3.1553 9:11.907 
-1.334399970612762e-007 -2.419441002991084e-005 -8.905548552881408e-008 -1.446098243093288e-007 -1.030117469566458e-007 -0 -0 -0 -9.228735752549269e-008 -0 0 1.977029818922259e-007 1:1.8117 2:2.4085 3:2.5 4:5.1 5:0.024272 6:9.0856 7:-4.743 8:-1.4684 9:12.043 
-0 -5.197004242925185e-006 -0 -1.691670950241609e-009 -0 -0 -0 -0 -0 -0 0 0 1:1.0618 2:1.5588 3:8.1 4:4.35 5:0.092045 6:7.6833 7:-3.1447 8:-4.6084 9:11.374 
-1.964595629985544e-008 -0 -0 -0 -0 -1.022978128090346e-007 -3.874012381966315e-008 -2.350755919962386e-008 -2.006166027748363e-008 -0 1.343842294312761e-008 0 1:1.7326 2:2.4007 3:4.7 4:5.75 5:0.040517 6:7.1995 7:-1.0469 8:-2.5801 9:11.826 
-0 -0 -0 -0 -0 -1.626371345396389e-009 -0 -0 -0 -8.973855750828418e-006 0 0 1:3.5264 2:2.9267 3:0 4:7.55 5:0 6:9.8836 7:-1.7443 8:1.1311 9:12.116 
-0 -0 -0 -0 -0 -0 -0 -0 -0 -2.371686208380117e-006 0 8.737026233577703e-008 1:4.0113 2:3.5576 3:0 4:6 5:0 6:10.681 7:-2.7849 8:-0.013975 9:13.194 
-0 -0 -0 -0 -0 -3.495406102639462e-009 -0 -0 -0 -0 0 0 1:2.3827 2:2.175 3:4.4 4:5.55 5:0.039286 6:9.218 7:-3.9592 8:1.7778 9:12.871 
-0 -0 -0 -0 -0 -0 -0 -0 -0 -5.059938683649472e-007 0 0 1:4.8943 2:4.0216 3:5.2 4:7.45 5:0.034667 6:6.4577 7:1.6351 8:0.27415 9:13.777 
-0 -0 -0 -0 -0 -8.801372696672587e-008 -0 -0 -0 -0 -0 0 1:0.52425 2:0.52603 3:0 4:1.15 5:0 6:6.9826 7:6.0575 8:4.0947 9:11.238 
-3.389520815608573e-008 -1.231055340375692e-007 -3.617240176304022e-008 -8.807645407759409e-008 -5.243656850963042e-008 -2.795385027992048e-007 -9.292628711759898e-009 -0 -6.135935838629887e-008 -0 -0 4.791391487097745e-005 1:0.19289 2:0.25425 3:0 4:0 5:0 6:7.0774 7:5.5853 8:4.9223 9:10.643 
-0 -0 -0 -0 -0 -0 -0 -0 -0 -0 -0 6.789804853849865e-005 1:1.6489 2:1.1742 3:0 4:0.4 5:0 6:5.7371 7:5.99 8:2.7467 9:12.539 
-0 -0 -0 -0 -0 -0 -0 -0 -0 -0 -0 8.687560858776814e-005 1:1.6526 2:3.4379 3:0 4:0.4 5:0 6:5.8591 7:9.1699 8:0.78001 9:14.073 
-2.640430817497122e-008 -4.379830580659523e-008 -4.013536491739944e-008 -6.07140303544311e-008 -4.869100777483213e-008 -0 -0 -6.663738477013726e-008 -6.52390709700707e-008 -0 -0 0 1:0.64198 2:0.21459 3:1.15 4:0.95 5:0.0575 6:-2.5608 7:9.297 8:-0.17667 9:10.562 
-0 -0 -0 -0 -0 -0 -0 -0 -0 -0 -0 0.0002038394174346128 1:0.76172 2:1.1354 3:0 4:0 5:0 6:2.9818 7:9.6002 8:0.52145 9:11.447 
-0 -0 -0 -0 -0 -0 -0 -1.883220325560867e-007 -0 -0 -0 0 1:0.77039 2:0.6758 3:2.05 4:0.8 5:0.12059 6:2.814 7:9.4197 8:1.9977 9:11.223 
-0 -1.368761398491481e-008 -0 -0 -0 -0 -1.567808460981873e-007 -0 -1.350682407921492e-008 -0 -1.153874171057227e-007 0 1:1.1342 2:1.1926 3:0 4:1.7 5:0 6:4.7602 7:7.3462 8:-0.071128 9:11.794 
-1.240135678031835e-007 -1.071746248552826e-007 -2.270358029939169e-008 -4.765801857059581e-008 -2.744170129612129e-008 -6.510174880758985e-008 -0 -0 -1.961493740059057e-008 -3.445747719436084e-008 -0 8.035190404381217e-005 1:2.1755 2:1.7471 3:0 4:0 5:0 6:6.4852 7:4.2995 8:4.5887 9:12.462 
-0 -0 -0 -0 -0 -0 -0 -0 -0 -0 -0 7.955252875859954e-005 1:4.7603 2:3.7608 3:0 4:0 5:0 6:7.4843 7:5.0806 8:5.152 9:14.472 
-0 -0 -0 -0 -0 -2.738269758094411e-008 -0 -0 -0 -0 -0 5.710446723946469e-005 1:1.2053 2:2.2355 3:0 4:0.55 5:0 6:7.5689 7:6.5252 8:3.1044 9:12.85 
-1.023396001331304e-007 -0 -3.848599231792414e-008 -0 -1.687630389824219e-008 -0 -0 -1.087065101559817e-007 -3.097921021297277e-008 -0 -0 0 1:0.70047 2:0.34185 3:0 4:0 5:0 6:-0.62355 7:6.2127 8:6.5304 9:10.681 
-6.797316639517634e-008 -0 -0 -0 -0 -0 -0 -0 -0 -0 -0 0 1:0.21655 2:0.30557 3:0 4:0.75 5:0 6:3.8046 7:5.5486 8:7.7066 9:10.706 
-0 -0 -0 -0 -0 -0 -0 -0 -0 -0 -0 0.0002240991497570912 1:0.9422 2:0.92562 3:0 4:0 5:0 6:5.8335 7:7.0293 8:3.6518 9:11.669 
-0 -0 -0 -0 -0 -0 -0 -0 -0 -0 -0 2.118368289758553e-005 1:1.8466 2:1.1715 3:0 4:0.35 5:0 6:4.8597 7:7.0485 8:2.9625 9:12.506 
-0 -0 -0 -0 -0 -0 -1.471128900579531e-009 -0 -0 -4.567479723461783e-008 -3.827009355335967e-008 8.066880516451871e-005 1:2.7758 2:3.6299 3:0 4:0.65 5:0 6:7.0064 7:6.7721 8:-0.074764 9:14.258 
-0 -0 -0 -0 -0 -0 -0 -0 -0 -2.495747901849403e-009 -0 -8.282994076244164e-005 1:4.2134 2:5.0246 3:0 4:1.2 5:0 6:8.2805 7:6.4329 8:1.9917 9:15.398 
-0 -0 -0 -0 -0 -0 -0 -0 -0 -0 -0 -0.0002507557445332867 1:1.2128 2:1.8511 3:0 4:0 5:0 6:3.8795 7:9.5131 8:0.54066 9:12.399 
-0 -0 -0 -0 -0 -0 -0 -0 -0 -0 -0 -0.0002235271231879899 1:1.3419 2:0.70308 3:0 4:0 5:0 6:6.1166 7:5.1666 8:4.9167 9:12.156 
-0 -0 -0 -0 -0 -0 -0 -3.65539740185526e-007 -0 -0 -0 -5.37516150641611e-006 1:0.70619 2:1.0068 3:1.5 4:0 5:1.5 6:3.791 7:8.9954 8:2.1216 9:11.669 
-0 -0 -0 -0 -0 -0 -0 -0 -0 -0 -0 -0.0002634148586586896 1:1.0244 2:0.93019 3:0 4:0 5:0 6:5.3586 7:7.4843 8:1.4288 9:11.445 
-0 -0 -0 -0 -0 -8.780179559374857e-007 -4.013262490445005e-007 -0 -0 -0 -0 -0 1:0.86459 2:0.38613 3:2.7 4:0 5:2.7 6:7.1084 7:6.8289 8:0.32415 9:11.701 
-1.607860096198901e-009 -0 -0 -0 -0 -0 -0 -0 -0 -0 -0 -0 1:1.6136 2:0.49418 3:0 4:0 5:0 6:3.5824 7:8.7911 8:0.69039 9:11.838 
-9.618724545116581e-008 -1.456266166604906e-007 -6.197595570984403e-008 -8.00951340507583e-008 -5.254438160384703e-008 -0 -0 -0 -1.004005530046338e-007 -0 -6.511083312893682e-008 -0 1:0.73509 2:0.29997 3:2.1 4:0 5:2.1 6:3.4747 7:8.9844 8:-1.2692 9:11.656 
-0 -0 -0 -0 -0 -0 -0 -0 -0 -0 -2.348609897194609e-008 -0 1:0.79927 2:0.56105 3:0 4:0 5:0 6:7.0996 7:5.5722 8:0.23833 9:11.286 
-0 -0 -0 -0 -0 -0 -0 -0 -0 -0 -0 -0.0001050934448782353 1:2.5718 2:3.2348 3:0 4:0 5:0 6:7.5919 7:5.8243 8:5.2148 9:13.597 
-0 -0 -0 -0 -0 -0 -0 -0 -0 -7.689186332943616e-008 -0 -0 1:3.3052 2:4.5996 3:0 4:0.25 5:0 6:7.5552 7:7.3227 8:-2.4686 9:14.936 
-4.318853933077778e-007 -1.217309264243217e-006 -1.153064387788937e-007 -2.83844239653274e-007 -1.843164970949583e-007 -5.357957441403251e-007 -0 -0 -1.649216703606446e-007 -1.715677620772074e-007 -1.914436325640267e-007 -2.971106573040467e-006 1:0.56539 2:0.50982 3:0 4:0.25 5:0 6:9.6607 7:0.8897 8:2.5509 9:11.245 
-0 -0 -0 -0 -0 -0 -0 -0 -0 -0 -0 -1.511759555793125e-005 1:1.4708 2:1.2916 3:0 4:0.8 5:0 6:5.8104 7:7.9775 8:2.2869 9:12.06 
-0 -0 -0 -0 -0 -4.194298140634215e-009 -0 -0 -0 -0 -0 -0 1:6.377 2:7.6195 3:0 4:4.9 5:0 6:18.094 7:1.1972 8:8.9602 9:25.743 
-0 -0 -0 -0 -0 -0 -0 -0 -0 -5.082389045248888e-009 -0 -0 1:3.4981 2:2.4722 3:0 4:5.15 5:0 6:17.171 7:6.2862 8:1.302 9:22.226 
-2.852584929084374e-008 -2.676442660930702e-008 -1.969915718342837e-008 -1.911446265912014e-008 -2.050484084833847e-008 -0 -0 -0 -2.121209880029354e-008 -0 -0 -0 1:1.4659 2:0.57792 3:0 4:5.3 5:0 6:6.8863 7:-13.787 8:3.5874 9:20.825 
-0 -0 -0 -0 -0 -4.995200326025477e-009 -0 -0 -0 -7.05741708790351e-009 -0 -0 1:1.8981 2:1.1743 3:0 4:5.5 5:0 6:18.529 7:-4.7155 8:-1.5321 9:21.756 
-0 -1.363848465767092e-008 -0 -0 -0 -0 -1.103176844445404e-009 -0 -0 -3.078271828694595e-008 -3.898130441653833e-008 -4.025516348981508e-007 1:5.1554 2:3.4339 3:0 4:5.75 5:0 6:14.403 7:-9.9952 8:-3.2453 9:23.667 
