svm_type c_svc
kernel_type polynomial
degree 3
gamma 1
coef0 0
nr_class 2
total_sv 10
rho -6.0876
label 1 2
nr_sv 8 2
SV
9.562524607155967e-005 1:6.4556 2:-5.5001 3:2.8578 
4.723675649975283e-006 1:7.2774 2:3.1988 3:1.892 
0.0001686764915782376 1:5.0563 2:-2.5971 3:6.1724 
0.0003272592258609368 1:5.3329 2:-5.0067 3:3.0912 
3.449957179491359e-006 1:7.6494 2:1.0744 3:-6.0084 
0.0001301425933510062 1:7.9306 2:0.39563 3:-0.78981 
2.616303528794301e-005 1:6.0557 2:3.2037 3:-4.2549 
1.790145076654313e-006 1:-0.28909 2:8.6623 3:5.2079 
-0.0001639291146021243 1:8.1225 2:1.2866 3:-1.2871 
-0.0005939012554536802 1:5.3823 2:-4.5594 3:4.098 
