svm_type c_svc
kernel_type polynomial
degree 3
gamma 1
coef0 0
nr_class 7
total_sv 58
rho -1.1682 -0.51143 1.89006 1.45701 0.558003 -1.02054 -0.171073 4.04631 6.26328 17.682 62.4725 1.56631 1.48917 0.881748 1.19779 -10.2596 -5.69146 -3.6091 -6.32568 -3.68622 8.81369
label 1 2 3 4 5 6 7
nr_sv 11 10 5 7 9 9 7
SV
7.171386883294598e-009 3.595542752574576e-007 0 0 0 0 1:1.4866 2:1.6043 3:6.8 4:3.5 5:0.095775 6:8.96 7:-5.8701 8:-1.4627 9:13.065 
3.903076449568979e-008 0 0 0 2.886080712280156e-008 0 1:2.6868 2:1.8549 3:0 4:3.3 5:0 6:6.1669 7:-7.821 8:-2.2117 9:14.087 
0 2.898643632831878e-006 3.302515701690698e-007 3.791784794888056e-008 1.936798076694748e-007 6.745469379791081e-007 1:0.56649 2:0.37062 3:0 4:4.15 5:0 6:6.0878 7:-6.7467 8:2.4207 9:10.729 
0 4.157214137420182e-006 0 0 0 0 1:0.68648 2:0.59097 3:4.5 4:4.85 5:0.045918 6:8.758 7:-3.525 8:-0.39139 9:11.814 
1.920531982856883e-008 0 0 0 0 0 1:1.3492 2:2.9035 3:4.9 4:3.3 5:0.073134 6:6.4132 7:-5.9209 8:-7.1139 9:13.714 
0 6.344322704769752e-007 0 0 0 3.047210345089321e-007 1:3.752 2:6.4582 3:2.8 4:3.85 5:0.035897 6:8.0284 7:-6.5863 8:-2.285 9:14.139 
0 6.943616089773337e-006 0 0 0 0 1:2.6236 2:3.2921 3:2.2 4:5.25 5:0.020755 6:9.551 7:-3.0417 8:-3.0166 9:12.883 
0 0 4.642699877351691e-007 4.971528362925471e-007 1.644083577025602e-007 0 1:0.53732 2:0.31808 3:2.2 4:3.55 5:0.030556 6:8.2965 7:-3.8852 8:-2.4447 9:10.838 
0 0 0 0 0 1.433633483482109e-006 1:1.0224 2:1.8788 3:8.3 4:6.4 5:0.064341 6:7.2394 7:-7.0128 8:-0.11612 9:13.049 
0 1.634794349108556e-006 0 0 0 0 1:1.3218 2:2.2587 3:9.2 4:6.4 5:0.071318 6:7.3478 7:-6.8184 8:-1.4437 9:13.27 
3.255504002175656e-007 0 2.930594237789976e-008 1.84460377141429e-007 4.406628434440831e-007 4.186648005960128e-006 1:0.13657 2:0.28569 3:2.8 4:4.65 5:0.029787 6:2.4036 7:-10.087 8:1.5207 9:10.775 
-0 0 0 0 0.001217239752429112 8.205135975729954e-005 1:0.038761 2:0.15415 3:5.2 4:0 5:5.2 6:3.3861 7:-10.144 8:1.0012 9:10.85 
-0 0 0 0 0.005055360274227864 0 1:0.024985 2:0.24084 3:5.4 4:0 5:5.4 6:2.9348 7:-10.394 8:1.2093 9:10.919 
-0 0 1.488774179388742e-007 1.470060742687379e-007 0.002101782557377557 4.815216682268851e-005 1:0.12426 2:0.35474 3:5.3 4:0 5:5.3 6:1.5752 7:-10.778 8:-0.10025 9:11.065 
-0 0 0 0 0.0001022140562058123 0 1:0.080229 2:0.28071 3:6.8 4:0 5:6.8 6:1.6855 7:-10.938 8:-0.3094 9:11.19 
-9.117033376989182e-008 0 0 0 2.238524843167524e-005 0 1:0.23932 2:0.48294 3:4.5 4:1.8 5:0.12162 6:2.7946 7:-12.423 8:-1.3641 9:13.024 
-0 2.714812400826434e-008 0 0 0.0001533845314736602 4.571548426075432e-007 1:0.45697 2:0.55836 3:4.7 4:0 5:4.7 6:3.667 7:-9.8523 8:-1.9352 9:12.08 
-0 0 0 0 0.001196076660411231 0.0001212565510304801 1:0.11975 2:0.21878 3:6.3 4:0 5:6.3 6:3.4085 7:-9.8152 8:1.5528 9:10.773 
-2.99787537655227e-007 6.611084061341166e-008 4.309713660775323e-007 0 0.003099647374373171 0 1:0.19785 2:0.35152 3:2.9 4:0 5:2.9 6:3.1014 7:-10.496 8:0.95145 9:11.309 
-0 0 1.114778289844431e-006 2.901243625231523e-006 0 0 1:0.11149 2:0.25233 3:5.8 4:0 5:5.8 6:2.9162 7:-10.174 8:1.5447 9:10.816 
-0 0 0 0 0.0008983314516598191 0 1:0.50249 2:0.42198 3:7.8 4:0 5:7.8 6:3.2215 7:-9.6351 8:1.7891 9:11.241 
-1.542578904620741e-007 -0 0 0 0 0 1:9.4627 2:7.6047 3:0 4:7.9 5:0 6:9.0335 7:-2.348 8:0.48552 9:15.824 
-1.507425196354245e-006 -1.228260151566591e-008 4.170220229354447e-008 5.611631419093502e-008 2.868424505107181e-008 1.421996621061627e-008 1:0.70186 2:1.4701 3:8.75 4:3.8 5:0.11364 6:6.7284 7:0.67447 8:-7.3523 9:10.918 
-1.280687435043281e-005 -7.143047950981137e-008 1.417679190681908e-007 1.425253754411106e-007 1.153344757527648e-007 1.556580078121263e-007 1:1.8117 2:2.4085 3:2.5 4:5.1 5:0.024272 6:9.0856 7:-4.743 8:-1.4684 9:12.043 
-1.01976158709986e-006 -9.545883596198711e-009 0 0 0 9.559839911520355e-008 1:1.8626 2:2.5355 3:9.3 4:6.3 5:0.073228 6:7.4228 7:-6.6 8:0.39197 9:12.176 
-1.139935730519395e-006 -0 0 0 0 0 1:2.3827 2:2.175 3:4.4 4:5.55 5:0.039286 6:9.218 7:-3.9592 8:1.7778 9:12.871 
-7.751147441610947e-007 -0 -1.648660034088358e-007 9.287060844208774e-006 1.367456515167006e-007 8.007003004894794e-007 1:0.52983 2:0.32706 3:0 4:0 5:0 6:6.4772 7:-4.7083 8:-1.3295 9:10.352 
-0 -0 -0 0 1.610227223101118e-006 5.443857151630967e-007 1:0.034248 2:0.22468 3:2.6 4:0 5:2.6 6:1.2388 7:-9.9999 8:2.2369 9:10.412 
-0 -1.694627073860838e-006 -0 4.503498697430156e-005 9.882024301245467e-007 9.6069222405251e-007 1:0.045186 2:0.42373 3:5.2 4:0 5:5.2 6:1.2339 7:-9.883 8:2.3805 9:10.358 
-0 -0 -1.860411795289949e-008 0 0 0 1:1.0357 2:0.28412 3:2.6 4:0 5:2.6 6:5.2795 7:-1.2565 8:-0.088233 9:10.492 
-0 -0 -0 2.467053860551879e-005 0 0 1:0.063393 2:0.23468 3:2.9 4:0 5:2.9 6:1.3849 7:-9.7645 8:2.4794 9:10.319 
-4.871275612104376e-008 -0 -0 0 0 0 1:0.095376 2:0.31782 3:4 4:0 5:4 6:0.93537 7:-10.084 8:2.696 9:10.731 
-0 -0 -0 0 1.833397695558803e-006 0 1:0.043485 2:0.39482 3:0.2 4:0 5:0.2 6:1.382 7:-9.8582 8:2.3511 9:10.42 
-0 -2.175552237862032e-006 -0 -0 2.911324371540173e-006 3.832925030049146e-007 1:0.058782 2:0.56139 3:5.5 4:0 5:5.5 6:1.7545 7:-9.8536 8:2.115 9:10.355 
-0 -0 -1.383682166914943e-008 -0 0 0 1:0.53453 2:0.3976 3:7.7 4:0 5:7.7 6:4.7219 7:-4.6071 8:4.2207 9:10.331 
-2.63661698822548e-009 -0 -0 -0 0 0 1:0.8461 2:0.3116 3:3.5 4:0 5:3.5 6:5.1337 7:-2.4613 8:4.9775 9:10.988 
-2.821303519463548e-007 -0 -2.763489358927433e-008 -2.867678183232612e-008 6.568489127274991e-008 4.178810365401781e-007 1:0.0947 2:0.58214 3:5.2 4:0.25 5:0.86667 6:1.7573 7:-9.6735 8:2.3773 9:10.35 
-0 -0 -0 -0 3.67486675387795e-007 6.870290377612285e-007 1:0.086641 2:0.63579 3:4.7 4:0 5:4.7 6:1.7805 7:-9.7777 8:2.1476 9:10.301 
-0 -0 -0 -6.391271192528224e-005 2.07224077316558e-006 0 1:0.070721 2:0.6062 3:3.7 4:0 5:3.7 6:1.6567 7:-9.7846 8:2.3458 9:10.356 
-0 -8.726974616382294e-007 -0 -1.026288506623584e-005 0 0 1:0.20628 2:0.35445 3:7.2 4:0 5:7.2 6:1.8652 7:-9.5395 8:2.0182 9:10.308 
-0 -0 -0 -0 0 1.143884660394262e-006 1:0.19173 2:0.75181 3:4.9 4:0 5:4.9 6:2.7421 7:-8.358 8:2.5043 9:10.266 
-4.347640924482764e-007 -0 -1.571699743736219e-007 -4.788312650678757e-006 0 1.559197477734391e-007 1:0.0094893 2:0.0051866 3:0 4:0 5:0 6:9.485 7:-1.0837 8:-3.0685 9:10.11 
-7.073612988466983e-007 -0.0004451523650367885 -8.709330890377577e-008 -0 -0 9.785322130036293e-006 1:0.13413 2:0.27178 3:0.4 4:0.5 5:0.036364 6:4.3121 7:-9.2166 8:0.57019 9:10.417 
-1.166528144112089e-008 -0 -5.692541190006083e-008 -0 -0 0.0001009087799094975 1:0.18907 2:0.15518 3:5.8 4:0 5:5.8 6:4.8134 7:-6.9906 8:-1.0194 9:10.777 
-1.085852356511006e-007 -0 -0 -0 -0 0 1:0.25082 2:0.29039 3:8.3 4:1 5:0.39524 6:3.0412 7:-10.429 8:-0.11865 9:11.358 
-0 -0.004526912474332873 -0 -0 -0 6.68959737970952e-005 1:0.085088 2:0.29641 3:3.9 4:0 5:3.9 6:2.4109 7:-10.188 8:0.54666 9:10.615 
-0 -0.001986202633778103 -0 -0 -0 0 1:0.27514 2:0.31951 3:5.6 4:0 5:5.6 6:2.1698 7:-11.008 8:0.34011 9:11.625 
-0 -6.266586621666088e-005 -0 -2.848683945686881e-006 -8.192578637590931e-007 0 1:0.078906 2:0.20746 3:0 4:0 5:0 6:1.8193 7:-10.41 8:0.77116 9:10.781 
-0 -0.0007374658325775985 -0 -0 -0 1.175900526271985e-005 1:0.095832 2:0.23499 3:9.1 4:0 5:9.1 6:3.3825 7:-10.368 8:1.0196 9:11.302 
-0 -0.006088022734647837 -0 -0 -0 1.12831298880411e-005 1:0.09362 2:0.28096 3:5.4 4:0 5:5.4 6:3.256 7:-10.322 8:1.4482 9:11.199 
-0 -0 -0 -1.719889054614288e-006 -4.597478847607205e-006 0.0001119787709301275 1:0.065045 2:0.24051 3:5.1 4:0 5:5.1 6:2.7489 7:-10.07 8:1.92 9:10.79 
-0 -0 -0 -1.753222616313875e-006 -1.206191932206053e-006 -6.673003223818828e-005 1:0.19994 2:0.57097 3:2.9 4:0 5:2.9 6:3.7398 7:-9.5039 8:1.3827 9:10.95 
-2.804100522860993e-007 -0 -4.493220341414784e-008 -4.293840273789007e-007 -2.28389722080571e-007 -5.76565650377106e-005 1:0.24161 2:0.22864 3:5.6 4:0 5:5.6 6:4.8238 7:-4.6576 8:-2.1409 9:10.437 
-0 -0.0002511928606766814 -0 -0 -1.021138531654697e-006 -0.0001882243846416186 1:0.10879 2:0.30296 3:5.8 4:0 5:5.8 6:3.0465 7:-10.067 8:1.0193 9:10.764 
-0 -0 -1.270362761655406e-007 -0 -0 -0 1:1.4325 2:2.7897 3:4.9 4:4.15 5:0.058333 6:4.6159 7:-9.279 8:-0.18726 9:13.282 
-2.083663350501933e-006 -0 -9.350789355825767e-008 -1.231715960123102e-007 -3.32286799532702e-007 -0 1:0.43684 2:1.5055 3:6 4:4.85 5:0.061224 6:3.7425 7:-6.8831 8:2.1942 9:11.101 
-2.656315327246944e-006 -7.243717763944586e-007 -0 -0 -0 -0 1:0.5256 2:1.7964 3:3.1 4:4.45 5:0.034444 6:4.8635 7:-10.235 8:0.77705 9:12.172 
-1.579160731895302e-006 -0 -0 -0 -0 -0 1:0.32929 2:1.2503 3:4.9 4:4.8 5:0.050515 6:4.6426 7:-9.0587 8:1.4365 9:10.913 
